net
{
	propagationenginegenerator1791944048146838126L = "edu.ucla.belief.approx.BeliefPropagationSettings@992d42";
	recoveryenginegenerator6944530267470113528l = "edu.ucla.util.SettingsImpl@aedd8";
	node_size = (130.0 55.0);
	huginenginegenerator3061656038650325130L = "edu.ucla.belief.inference.JoinTreeSettings@187bd8a";
}

node Assets
{
	states = ("High" "Medium" "Low" );
	position = (154 -305);
	DSLxEXTRA_DEFINITIONxMANDATORY = "false";
	diagnosistype = "AUXILIARY";
	label = "Assets";
	DSLxPOSITIONxWIDTH = "70";
	DSLxEXTRA_DEFINITIONxDIAGNOSIS_TYPE = "AUXILIARY";
	excludepolicy = "include whole CPT";
	DSLxTYPE = "CPT";
	DSLxPOSITIONxHEIGHT = "30";
	DSLxEXTRA_DEFINITIONxRANKED = "false";
	ismapvariable = "false";
	ID = "Worth";
}
node Income
{
	states = ("High" "Medium" "Low" );
	position = (-16 -208);
	DSLxEXTRA_DEFINITIONxMANDATORY = "false";
	diagnosistype = "AUXILIARY";
	label = "Income";
	DSLxPOSITIONxWIDTH = "83";
	DSLxEXTRA_DEFINITIONxDIAGNOSIS_TYPE = "AUXILIARY";
	excludepolicy = "include whole CPT";
	DSLxTYPE = "CPT";
	DSLxPOSITIONxHEIGHT = "30";
	DSLxEXTRA_DEFINITIONxRANKED = "false";
	ismapvariable = "false";
	ID = "Profession";
}
node DebtIncomeRatio
{
	states = ("Low" "High" );
	position = (648 -129);
	DSLxEXTRA_DEFINITIONxMANDATORY = "false";
	diagnosistype = "AUXILIARY";
	label = "Ratio of Debts To Income";
	DSLxPOSITIONxWIDTH = "81";
	DSLxEXTRA_DEFINITIONxDIAGNOSIS_TYPE = "AUXILIARY";
	excludepolicy = "include whole CPT";
	DSLxTYPE = "CPT";
	DSLxPOSITIONxHEIGHT = "30";
	DSLxEXTRA_DEFINITIONxRANKED = "false";
	ismapvariable = "false";
	ID = "RatioDebInc";
}
node Age
{
	states = ("Between16and21" "Between22and64" "Over65" );
	position = (406 -92);
	DSLxEXTRA_DEFINITIONxMANDATORY = "false";
	diagnosistype = "AUXILIARY";
	label = "Age";
	DSLxPOSITIONxWIDTH = "70";
	DSLxEXTRA_DEFINITIONxDIAGNOSIS_TYPE = "AUXILIARY";
	excludepolicy = "include whole CPT";
	DSLxTYPE = "CPT";
	DSLxPOSITIONxHEIGHT = "30";
	DSLxEXTRA_DEFINITIONxRANKED = "false";
	ismapvariable = "false";
	ID = "Age";
}
node FutureIncome
{
	states = ("Promising" "Not_promising" );
	position = (87 -462);
	DSLxEXTRA_DEFINITIONxMANDATORY = "false";
	diagnosistype = "AUXILIARY";
	label = "Future Income";
	DSLxPOSITIONxWIDTH = "90";
	DSLxEXTRA_DEFINITIONxDIAGNOSIS_TYPE = "AUXILIARY";
	excludepolicy = "include whole CPT";
	DSLxTYPE = "CPT";
	DSLxPOSITIONxHEIGHT = "30";
	DSLxEXTRA_DEFINITIONxRANKED = "false";
	ismapvariable = "false";
	ID = "FutureIncome";
}
node PaymentHistory
{
	states = ("Excellent" "Acceptable" "Unacceptable" );
	position = (159 -208);
	DSLxEXTRA_DEFINITIONxMANDATORY = "false";
	diagnosistype = "AUXILIARY";
	label = "Payment History";
	DSLxPOSITIONxWIDTH = "93";
	DSLxEXTRA_DEFINITIONxDIAGNOSIS_TYPE = "AUXILIARY";
	excludepolicy = "include whole CPT";
	DSLxTYPE = "CPT";
	DSLxPOSITIONxHEIGHT = "30";
	DSLxEXTRA_DEFINITIONxRANKED = "false";
	ismapvariable = "false";
	ID = "PaymentHistory";
}
node Reliability
{
	states = ("Reliable" "Unreliable" );
	position = (370 -281);
	DSLxEXTRA_DEFINITIONxMANDATORY = "false";
	diagnosistype = "AUXILIARY";
	label = "Reliability";
	DSLxPOSITIONxWIDTH = "70";
	DSLxEXTRA_DEFINITIONxDIAGNOSIS_TYPE = "AUXILIARY";
	excludepolicy = "include whole CPT";
	DSLxTYPE = "CPT";
	DSLxPOSITIONxHEIGHT = "30";
	DSLxEXTRA_DEFINITIONxRANKED = "false";
	ismapvariable = "false";
	ID = "Reliability";
}
node CreditWorthiness
{
	states = ("Positive" "Negative" );
	position = (511 -487);
	DSLxEXTRA_DEFINITIONxMANDATORY = "false";
	diagnosistype = "AUXILIARY";
	label = "Credit Worthiness";
	DSLxPOSITIONxWIDTH = "100";
	DSLxEXTRA_DEFINITIONxDIAGNOSIS_TYPE = "AUXILIARY";
	excludepolicy = "include whole CPT";
	DSLxTYPE = "CPT";
	DSLxPOSITIONxHEIGHT = "30";
	DSLxEXTRA_DEFINITIONxRANKED = "false";
	ismapvariable = "false";
	ID = "CreditWorthiness";
}
potential ( Assets | Income )
{
	data = ((	0.5	0.3333333333333333	0.16666666666666666	)
		(	0.3333333333333333	0.3333333333333333	0.3333333333333333	)
		(	0.16666666666666666	0.3333333333333333	0.5	));
}
potential ( Income | )
{
	data = (	0.3333333333333333	0.3333333333333333	0.3333333333333333	);
}
potential ( DebtIncomeRatio | )
{
	data = (	0.5	0.5	);
}
potential ( Age | )
{
	data = (	0.3333333333333333	0.3333333333333333	0.3333333333333333	);
}
potential ( FutureIncome | Income Assets )
{
	data = (((	0.75	0.25	)
		(	0.65	0.35	)
		(	0.5	0.5	))
		((	0.65	0.35	)
		(	0.5	0.5	)
		(	0.65	0.35	))
		((	0.5	0.5	)
		(	0.35	0.65	)
		(	0.25	0.75	)));
}
potential ( PaymentHistory | Age DebtIncomeRatio )
{
	data = (((	0.3	0.3	0.4	)
		(	0.1	0.3	0.6	))
		((	0.35000000000000003	0.3333333333333333	0.31666666666666665	)
		(	0.31666666666666665	0.3333333333333333	0.35000000000000003	))
		((	0.6	0.3	0.1	)
		(	0.4	0.3	0.3	)));
}
potential ( Reliability | PaymentHistory Age )
{
	data = (((	0.6	0.4	)
		(	0.7	0.3	)
		(	0.8	0.2	))
		((	0.4	0.6	)
		(	0.5	0.5	)
		(	0.6	0.4	))
		((	0.3	0.7	)
		(	0.4	0.6	)
		(	0.5	0.5	)));
}
potential ( CreditWorthiness | Reliability FutureIncome DebtIncomeRatio )
{
	data = ((((	0.7	0.3	)
		(	0.6	0.4	))
		((	0.5	0.5	)
		(	0.4	0.6	)))
		(((	0.6	0.4	)
		(	0.5	0.5	))
		((	0.4	0.6	)
		(	0.3	0.7	))));
}
